{"nr_inputs": 9, "nr_outputs": 9, "nr_layers": 4, "layers": [{"nr_nodes": 27, "activation_function": {"type": "sigmoid"}, "input_weights": [[2.0915511999075957, 2.60545685680541, -1.5390418707853577, 0.49358294261027114, 0.42042364350876343, 1.6458364493085844, -2.8891029001189747, 1.0963329812117488, 1.0140648814053705], [-0.8704045301198963, -0.29498227808028177, 2.6171846655457767, -0.8332015687000116, 0.17013939207865797, -2.266363946277709, -0.08425457581182827, 2.6813149226128603, 1.0935393083829408], [2.00790922403591, -0.4729072910979654, -0.3102160796779903, 2.114535112598666, 0.8635017094710993, -3.3945103296923658, 1.5867231904594956, -3.4930545289424932, -0.05032029800068948], [1.7420564678453805, 1.2994648460440785, 0.5559837074303, 2.039171077382318, 2.7012934777413857, 0.4126124763465825, -5.0553314707590955, 1.2407512271502334, 1.6098305796012455], [1.312368661315503, 0.353734433353159, -0.4976578560315543, -1.4472863198119692, 2.2515423399266488, 1.4815715690538438, -1.823452281123097, -1.0549144288209715, -1.9483625954488084], [0.39670441391639544, 1.100543277896727, -2.442744140391705, -0.37729649931856835, -2.2122215343089273, -2.229533738600754, 3.212966715309568, 1.3273525082414444, -1.568678742293144], [0.662143563519981, 1.0752176740544246, -2.1421319752292245, 0.03979678342198903, 4.024859382971833, -0.3976078886914392, 0.6176448665927158, 0.9052946059826853, -0.5113929765318986], [-0.13176021048342645, 0.266815463358747, 0.2684509637022248, -2.267661142536284, -2.800004844748903, 4.024699728202181, -1.370800000966636, 0.3646191386720178, -0.34917946056277693], [1.1004611246227505, -5.649332705161133, 1.264091698019493, 0.7025993652630275, 1.3492477660554578, -0.17132871180938805, 1.1018884177624904, -0.6105602332688732, 0.15720531835339902], [-0.7902319501941214, -1.1147880081048744, -1.0376780236849092, -2.1829864157949825, 3.041360356184169, -0.6874087072277943, 2.3196652755489424, 2.327246088851944, 3.1824681143363196], [2.02286653076113, 2.9628062368949006, -1.1038757974948679, 0.9487537302412425, 1.4355238261615237, -2.06292311084054, 1.9039915385922477, 1.39247928718167, 2.078667223000738], [-0.908527975373783, -0.9971241276161348, -0.3239782078477198, -0.5121709067048869, 0.1191745807862485, 3.618333954516328, 1.8026071183183567, -1.6790824408702136, 4.456917529463842], [-3.3267448704465323, -0.7172013734450872, -0.5734559428172531, 1.692853298421767, 3.8119217928347005, 1.9515767019612609, 2.439181873720358, -0.9508262967540654, 0.07887269648559299], [1.878072749032271, -2.571952076857461, -3.3077329302860856, 1.07968310674597, 0.06346013006427235, 0.12571855886287092, -0.30461011715429986, 0.9532471296905913, 0.4361237998029564], [1.2858932291753595, -1.0402475739857808, -1.5931474192242638, 1.9515022293002973, 2.0950201535663218, 1.8267309248534458, 4.735280012624311, -0.3280262335266163, -1.1264544610150293], [2.153016031508128, 0.36612306445747383, 1.9730323639437588, 3.119144497951899, -0.09534599209505638, 1.812220950849008, -2.3046738569778182, 1.2351806946263895, -2.540961243021825], [0.6495174782645436, 1.0880595167110156, -2.545223640965992, 1.3397084126087302, -3.5812033047947747, -0.7689850297182447, 0.9490683263651101, -0.022387558704511392, 2.041130785112348], [-3.115454300746851, 3.7628687959294123, 1.3831725468488116, -2.330098206928524, -0.6147245366232231, -0.7091565720533392, -1.9090491958328306, -1.7328248811118305, -2.1601983536074134], [-0.06618575731385316, 2.5875438775624082, -6.782717377893319, -0.890186557408221, -1.0541224792943629, 2.3318445252966162, -1.6838310557223333, -0.08317831554610017, 0.36172969209958006], [0.033087136919080225, -0.6781305470208425, 3.8495777828298556, 0.03341722071892013, -2.723324498801942, -0.4387601616148074, -0.056196523403550434, 0.9698257277571567, -0.08195952389031752], [0.7218726858320839, 0.864998055154342, 1.1154849286817643, 1.4050354549272293, 0.9756559052622942, 0.1895451704595636, 1.7188005114091955, 0.18968195975942248, -5.325273075280685], [0.42741296692954683, -0.9394769578718, -0.44973505542429476, 1.5211198297481872, -4.2072651552438085, 1.2819262982079336, 1.7959879082281147, 2.033855728890182, 0.7195556285951198], [2.319217876249982, 2.4819133221908762, 1.6265034147683117, 1.0714538448504696, 0.5826356898535192, 0.5874854559419355, -0.2798976611237724, -2.379417539862649, -1.2396653898824697], [-1.758087930247404, -0.06003043145338066, -0.6235977553750137, 1.3201348340056742, 2.1694764582763026, -0.566514066343196, -1.583833363865452, 0.42659745175942454, 1.411053268670099], [-2.8379079784856813, -1.4303978686428103, 1.590517132227751, 1.9547314798975608, 0.3705861317288615, 2.82899610912583, 1.8542471778190464, -0.4691008297892145, 0.8738142454039687], [0.17939314182760652, -1.2396540779141536, 1.651995962049955, -3.189595282987746, -0.425921582865523, -2.8130862032305064, 0.40500870450153814, -1.7376681832518357, 3.221195003512413], [-4.433793751308043, 0.73614439028312, 0.4044851010812206, 0.8516922782152689, 0.7813407486137632, -0.02222832194133213, 2.270967091584389, -0.8445007462536118, -1.8065780972201557]], "input_biases": [[0.5283166727547636], [-1.9689502248151405], [-0.6538169985191488], [-2.23360160179717], [0.24433457153235702], [-1.7908133404263777], [0.022532940804859514], [-1.0290064883197165], [-2.0515114547331232], [0.8392581686899842], [0.9039272327579233], [0.3702403984345864], [-1.447039968330847], [-1.5555781564219524], [-1.7627163129053705], [0.43943799838007025], [-1.7762048315967913], [-2.5822132126890334], [0.8941302943796823], [-0.1513109227341636], [-3.146908400969846], [3.922131761944755], [0.2771123812121366], [-0.12472913102016964], [0.9095880267667429], [-1.5554332488918683], [0.9008086190031215]]}, {"nr_nodes": 27, "activation_function": {"type": "sigmoid"}, "input_weights": [[0.054972863031270656, -1.36531319004972, 3.250749179726354, -1.5343788510605658, 2.0062821280373586, -1.154760093240127, -2.6159341357587724, -0.5362930513426203, -3.7943670405182917, -2.2042166112515598, -0.27980964375556555, -0.6015947942601478, 2.741717483356886, -2.5247183656739787, 2.485622431647263, -0.909629445946147, -0.6329202556519691, -2.8110413088391293, 1.1636749599487133, 0.2985156781378413, -0.5594439409736697, 0.5805075083751877, 2.1274110155817105, -0.9520468097662432, -0.8080856173611429, 0.8461074353676226, 0.157481665022107], [0.7461625347501265, -2.0806863497008323, 2.061771345026558, 2.1986983116156553, 2.3207242123192016, -0.263427516564965, -0.013872602023588672, 1.560698833145872, 1.1635569528739784, -2.7141578210687123, 0.7285768662524988, -1.0082283746742924, -2.4804265426053487, 1.1411195105941996, 3.416905920680076, 1.7104207245800223, -2.073249193878455, -2.420520264993354, 0.1897681842353079, 0.07431284540469749, 1.410393143232782, 0.17695605474000897, 1.7444593554947667, -0.0677844050006996, -0.18866120232385597, 2.247804312370915, -3.8577705323372906], [-0.9479340540184121, 1.4857207787472446, -1.2156654091379757, 5.077905099418764, -0.6257090941735258, 1.1728091941097665, 1.6242389863314264, 1.1935824446952226, -0.1988497486485412, -0.3855492371598989, 0.19597655587700255, 0.7831290236528992, 0.3023777748150278, -0.17471739925512164, 1.4595198774032387, -3.0182421681846363, -0.3885316628507501, 1.7735541737296585, -0.9541814537467236, 1.0467075188889057, 0.3206065747921249, -1.5842028776656556, -0.33311986935019106, 0.47861925303458414, 0.8813741670809137, -2.6202223242126625, 0.4871535235497028], [-0.31257550679382884, 1.5209254642277934, -2.174531031867678, -1.5013500767548411, -2.427923939848154, -0.6129933744959822, -1.7572112084683476, -1.1814240777732645, -2.1215729563926615, -1.0582717687638978, -0.21450389064271697, 2.917500550689738, -0.565716023733709, 0.5218974675536233, -0.899450231357914, -0.4596081617556281, 1.474002947351068, -1.6915043266902634, -0.437463200350163, 1.3069290399035733, -3.278388036010293, 0.42316972855252577, 0.46324200064624205, 0.17854448406580073, 2.988062043837641, -3.2432922397167285, 1.0053863407027366], [0.33865658102886, 0.7642808966193816, -1.8309205672455373, -0.6787194349847705, -0.5674460353955082, 1.9761274861931757, -1.9005911799873778, 0.7032775504086791, -0.8582799558897197, -1.4991648384211749, 0.1386562605869977, -1.3678581259808713, -1.4784899612406042, -2.7738390744365518, 0.6615000667787798, -0.7401887712633369, -0.896443052990091, 1.6183249667032558, -2.3145655091757944, -0.038934471214716326, -2.0308722798167085, 1.8531767681291436, -1.5219966946810553, -2.798466139194875, 2.038629797311887, -5.04063075663872, 3.2245332323623903], [-0.6242500111153454, -1.94272173444138, 2.8187557695011876, 1.2055049428971927, 3.531259951806908, -1.2319006090984126, 0.4360402884253583, -3.3227078031080604, 1.2740945685587097, 0.7205146708676261, 0.2501471591503065, 0.7449183979882892, 3.739957169381162, -0.16362966548969052, 2.2280189917515685, -1.180230354936285, -0.2252929117148537, -1.3995476881144013, 0.03753570048688643, -1.2832124323966085, -1.2043152943518678, -0.6530485534328728, 2.256973471701449, 0.105486388318681, 2.2264608160776063, -0.2000873288960521, -0.5622809536979713], [-3.253057735665665, 0.0759646491782306, 1.610547985014395, -0.800969558020676, -2.932220678094384, 1.0299691478562494, -1.8315896925469743, -1.958627325081837, 2.438336589096336, 0.33080973232451305, 0.44486361257847307, -1.2572174204904876, 0.11148726505969582, 3.152538311392732, 2.076214165877837, 0.5057461107983631, 1.0840194508579246, 0.8829297083402613, 0.7716892341725349, -1.8743503532369945, 0.5131644778152913, 1.6905594834730084, -2.557179333418947, 0.26328826770025165, -0.1472742946732575, -0.7445615007794023, -0.6732343777619565], [-0.784530233856557, 1.2709581769740583, -2.5807543324100446, -0.774759326549204, 0.27177071334937103, -0.35477137486696353, -0.34893984535979855, 1.330684956175218, -2.384674003114748, 1.4518573185343717, 1.3695059386948722, 4.674449091397924, 0.14872796248988263, -0.8430424113459374, -1.4047340856640955, 0.18389361964514556, 2.2606410212958963, -0.13474959242931792, -2.0279409279132863, -0.42677907006221855, 2.423188215118191, 1.0241183950976287, -0.02446462272001674, 0.4611070000029466, 1.4287534016267085, 0.8877721712017067, 0.8502656925230785], [1.4514682251435387, 0.29897697596389095, 1.370423170742059, -2.596395366774597, 0.07277656889838431, -0.7266694815518028, 0.9307599632850105, -2.1421508254998924, 1.6446929918881645, 1.6443490470977145, 0.4229140703582731, -0.29289018041137627, -0.16644915484714198, -0.5658400146001908, 0.11583410772558465, 0.8831560293382289, -2.6012795329067697, 0.5354909598435186, -3.178319830193709, -2.7377518620145573, -0.30134534879768293, -2.04735194953979, -0.7861018357966337, -0.3668999466108183, -0.8867074915089542, 0.04747037322654381, 0.7218606252716837], [0.5099270626700761, -0.6550162177443046, 2.0035085853554953, -0.29168682169723115, -0.44726767583634475, 1.0575803376582578, 0.05193148884952819, 0.3758598279356172, 2.611433667071823, 0.5067013747854846, -0.32565865665185306, -0.5079191772654402, -2.27619758776556, -0.09459413833765287, 1.7282408529487447, 0.17221491560226457, 1.0185183100186386, 2.1944268471085677, -0.09863284627478928, 1.7887816464297486, -1.411560431432777, -1.2161754392839246, 1.2771950756422905, -1.323935948293644, -0.7202569070801632, -1.3969943863266827, 0.13811099381065914], [1.2949658739794692, -2.568782409072559, 0.5651364646931291, -0.9405122165810624, 0.20550153665526924, 0.9437976867307576, -0.5120039030951591, -0.7800696126329849, -1.2643512477570498, 0.28060767309937534, 0.46644688753028407, -1.2366553768290311, 1.085302910540552, 0.3423088494111778, 0.08743979109283984, -0.7709257793358965, 0.9065880684631045, 1.194797593094157, 4.377612960574091, -4.133532018613541, 0.8149891804396959, -1.434293223534157, -2.761047826316159, 0.6308358990902007, -0.63831426461336, -0.7220535030802976, -1.7271409667088122], [-0.24400407625693354, -0.3523663312094787, 0.8960239394039835, -0.9586175434082664, 0.9746780402519231, 1.5386101060203536, 2.0293177063853856, -0.3889835811574504, 0.37363684168640776, 1.7147179139894302, -0.4092993389848541, -0.6026039755015703, -0.48949323385649524, -0.42773569885403073, 1.5689509547673683, 1.176252377217594, -2.814477683875847, 0.2904028968030218, -2.237008638000938, -1.3432374677114893, -1.448748505584986, -1.8941849684921006, -0.2353575778812423, -0.930887218017698, -1.6243254241206941, 0.7130864808898878, -1.242098458765484], [0.11324685156649313, -0.22372418944605238, -2.980741163538116, 0.22384555089046276, 1.5007517568406286, 0.17941452012272538, -1.5867338948505907, 1.3806852189040817, 0.1137034790000789, 1.9639039631356396, 0.5062755481112422, 4.408971665330629, 1.31146746153905, 0.9538988837304526, 0.621954704323477, -1.5835883714883532, 0.2063329334736667, -0.34504883813839315, 1.2635258265965503, 1.153040440834399, 2.1684563071942526, 0.9251909020311241, -0.8762364842195005, -1.75871718325773, -1.0246674560362712, -0.1272634814225573, -0.5056874564277158], [1.6299528309833327, 2.25729589031126, 1.4266544068349367, -0.5885345399247375, -0.19933379438257579, -2.841693153558462, 5.508555701206264, 0.007694514753807837, 1.4357175809045961, 0.8158323740106914, -1.9778462233999217, -0.3724343120412858, 0.19863342962481395, 0.37602725076153504, 0.4988978698245568, 0.23169745769637004, -3.3477171787530335, 1.4911474933511693, -0.42004281150372164, -2.682560879810085, 0.22782093413633184, -1.322740463778503, 0.2722867912288439, 2.9898899558288163, 1.0052260512261588, -1.377682249599849, 1.4876609214382908], [0.01611145199923959, -0.39169582968248323, 0.12130982360587517, -1.2734477555207602, 1.0596005003262379, 2.1582781112940235, 0.14149690140166055, -2.238406563677736, -1.1921365253624996, 1.9288181798509336, 2.2155902309122615, -3.855776685102123, -2.4483929393941644, -2.5087707464991142, -1.0750094063986824, -1.3635074733750334, 1.2069330562970102, 4.07503838683597, 0.3153919614483098, 0.5291500409015675, 1.2991279837309448, -0.14621129206344533, -0.09799360307383638, -2.3892604253741245, -2.387470490854013, -1.190433292412045, 2.9168645835370577], [-1.9639139396358003, 1.681848182917777, -1.8109306201715583, 1.7470912488753376, 1.679138000001273, -2.953682196936004, -0.13245852790393836, -1.982721181045877, -2.4623911775839242, 2.901099936049273, 0.03811321259611362, -0.4202243417171459, -0.441870430459991, 0.07357779278784637, -0.7043632557964412, -0.9209916464701838, 0.39313568643887264, 0.29852300244080404, 0.07247022500992646, -2.501714083344657, 0.017074433517231074, 4.341342002511422, -0.6317611654202775, 0.733831694923316, 1.0766063469143252, -0.9720736225087506, -0.9277529360164801], [-1.2114309754097297, 0.020164323145611195, 0.015573106876103006, -2.634893777773732, -0.027487119983281405, -2.549431667328049, 4.1782500478169595, 0.18089602718406844, -1.362992690735972, 0.766993050064121, 0.7929578224173297, -0.2427856248929932, 2.046160469097413, 2.368129996712914, -2.1235984314950853, -0.5042789082156022, -1.6993155915725953, -1.4412544447101097, -2.2901109785425886, -2.1367543966796614, 3.039286877103927, -2.9467532592617434, 0.6147824525863618, -0.049971933416737654, -0.03325685189915256, -0.3880288391109786, -0.011539889233756326], [1.9165481494073826, -3.058201371939099, 0.8874829208135916, -0.5350174525701314, 1.7639051147494693, 0.12785722919176756, 2.968929199586126, 0.5682149187918141, -0.06214533224096535, 0.9159234412917783, 1.9905239376611317, -0.8151537461857777, 2.818688554361719, 1.956843642749675, 0.19016427207436018, 0.4241055774950303, 0.5477509551929879, -0.4320245656706845, 2.9545127210301194, -2.399319737344149, -3.122415340843159, -0.3160057993575006, -1.753607972477437, 2.2328678352453104, 0.49952985973954067, -3.223029598967275, -1.5524958155062276], [0.32883385453849606, 0.4824604963428105, 1.6350786676160065, -0.2481270170705962, -1.6850835761247396, 3.0238978532102, -0.9584246419805484, -1.462887388320099, 2.099907856953655, 0.02580383451687691, -0.21240301174959314, 1.9069080961761222, 1.982082237811535, 2.5658720837880074, 1.3330250785054378, 0.22739161508615488, -0.43987250668455097, -0.1474296469019492, 1.1830049373946288, 1.8634679410371486, -1.9072051037141644, -0.7940205016345527, -1.664678697104549, -0.8260524278745396, 2.2301728601152897, -0.7846070058068125, 1.1779101336979687], [0.5746890758861672, 1.500294624022472, -1.009093937572185, -1.484448468782075, -0.6024974466225996, -0.03665548651521428, -0.5349084318107311, 0.680255532599657, -0.07082859677200633, 2.0373455726701915, 1.540962370554176, 0.42402889803466426, -1.4999492791284665, 2.4929906843527947, 2.007015156036277, -2.350344781887016, 3.5979108292675557, -1.3092894370487749, -0.3309211440602401, 0.5860420837033907, 2.6388484071314573, 1.6853628521283646, -1.5090725959076277, 0.5187197419960317, -1.303779051617991, 0.8950417257321159, -1.4519515907193672], [2.9651645200508927, 2.287326121394701, -1.0293521788127058, -0.8062882457718029, 0.2043430460854081, -4.082187138890761, 0.6809699386284455, 0.5430466820651327, 0.16892931833332306, -0.20665804083141132, -2.5894129067814844, 0.361539980875563, 0.5031990904703104, -0.9469731751168956, -4.849701342791662, 4.355292373144335, 1.952018623998136, 2.328950551595463, 1.9069132978531713, 2.7210315884622474, -1.0901899011074778, -5.209730832855166, 3.070425744264896, 0.49763674821993853, 1.1733327832129412, -0.44609192895587985, -3.520413591002926], [2.346754066229424, -0.755111710403808, 0.6845984417335216, -2.4556080694830666, -1.617150142764573, 0.3418987777015381, -2.2826603429706362, 0.7443802836844048, -0.9582064069840357, -1.0857245483887172, 1.256849308680224, -2.7814511344309096, -0.4144254745228141, -0.28875440825444754, -1.6105394585409545, 1.8075005445709091, 2.129756982439311, 1.2129009762927838, -0.5714955613791007, 2.5636611005409584, 0.5129988709865645, 3.945566440669133, 3.0838309683089684, -1.9324653135580672, 0.09279931295119238, -0.6469227914468006, 0.8127217213922917], [-0.6848944104421636, -0.5010677482352051, 0.5528388018600585, -2.7071254488049474, 0.7978477744914622, 2.7393978788535684, 1.6684852664898226, -0.022553742649394845, -2.0265354815149843, 0.6342262442515066, -0.1445976999876595, 0.6286049521957916, 0.30509596873541395, 0.5787629755553644, -0.5883153784787625, -1.913917957943605, 1.5534273840647517, -1.0213899577343215, 4.181450352796446, -2.901776767088518, -1.3451072727706528, 0.6899831306883044, -1.8886211242106345, 0.5502560960148758, -1.3258761360853486, -2.5516650736767135, -1.2718874351928533], [-1.777111101862778, -0.6193093439420361, -0.7133156637186777, -0.018784992373060527, 1.935704424658147, 0.938627418085762, 1.270052298005671, -0.3035908373075078, 0.5056014643936643, -2.301585261854294, 0.3293700997907015, -4.7776149809840645, 0.34635706329087546, 0.3763161516878422, 0.7919462854569689, -0.8305052822400587, -1.76933836502202, 0.21148635611682912, 0.8079630963044986, -0.7129971147171312, 3.931025136076135, -1.943149466139037, 1.8022996785307661, -0.4366089209589195, -0.859701403261646, -0.5285520956477524, -2.411822978047368], [-0.2883409835337176, -0.15264362249296598, -0.029552986686059775, 1.6152832105514883, -2.0216571470849183, -2.0115871638062046, 0.609879839212333, 1.366745735163183, 1.846551506552644, -3.1746045380445187, -1.4360088469052974, 2.0339262194298176, -1.6578291811991945, 0.24183186533619822, -3.3832713495019227, 0.3578960360960583, 0.8605234367767661, -0.18223507505678285, 0.8401507171352016, -0.43682447429137605, -3.038622091195022, -1.2446653778555175, 0.23110864118148436, 0.79436605484012, 2.060867255427683, -1.682991916195952, -1.4792505401819058], [-0.993102897520483, 0.2547092571263902, 0.4827015714671383, -5.395856411928803, 0.41592558794267037, 3.428582099360914, 0.07273516215021213, -0.14666348043667424, 1.3439868050150443, 0.8820934548757231, 0.8239433070204489, 1.5964020190235912, -1.6022446781147652, -1.3544549961121974, 2.448591689830587, -1.011130595356705, 2.260046340710464, 0.4960825026578211, 0.5107736932213374, -0.950989012839648, 2.222683828665476, -0.05807881721625448, -1.237196580063133, -2.661056673764581, 1.7448898965984387, 0.2901714903285846, 1.3760085889089946], [0.8100492648530687, -3.0179452231699178, 2.418674797210667, -1.2391026782786578, 0.31785819009605015, 2.5219518707344366, -1.0375145561150971, 0.39868878175307454, -3.4970365888242583, 2.302358037827899, 3.0221150155041476, -2.1793708450416145, -0.5821506519726604, 0.0841994056440645, -1.0675079553872122, 1.0065516010364395, 0.4456219854482875, -1.5739958816312225, -1.1671814693394023, 1.0508960485414693, 0.5820079350404782, 1.5014711433079568, -1.0787807865060102, -0.2512568439038643, -0.6141870364640502, -1.526035248749863, 1.9981708037337558]], "input_biases": [[0.4441075288052194], [0.19812250711442508], [0.005960617136388375], [-0.4387903707697662], [0.09402628308704035], [-0.055257532930169564], [-0.5786582829010505], [-0.17555126455128434], [0.29042334255477387], [-0.43154084984423086], [0.039444557931118], [-0.4705947393899857], [-0.835768478167762], [0.26415169528223353], [-0.04192579813343803], [-0.42978184593985097], [-0.30210204568111665], [-0.07542932148979446], [-0.23017635144050388], [0.980490448688605], [0.10877861340615165], [1.0047254401948298], [-0.2967636118505901], [-1.515602344020945], [-0.13007533298747653], [0.8402546900495644], [0.5123594251284165]]}, {"nr_nodes": 9, "activation_function": {"type": "sigmoid"}, "input_weights": [[-0.4042055830739102, 5.649343711820906, 2.8930396542749537, -3.9786669101196104, 6.985073724766972, -1.1253291946359392, 4.493975722296191, 2.7876943327715886, -2.4393651787841835, 0.20739785591290916, 1.1893455146275522, -1.9994814114013784, -0.8538844742745921, 0.6888088758131179, 3.2745138649214303, 3.299700792368782, -2.3912579893404398, -4.397047849152649, -4.970899077496426, 1.9321929452372437, -1.891685461943849, -7.002907692978953, 1.3846393836790456, -1.2080501878923042, 0.5668198974044472, 0.38486735966613944, -5.006342504855522], [6.030511717773423, 0.4794962286196783, 0.5389878792004152, 0.8580839374091794, -2.0205036122674906, 1.1866079700489836, -1.9111939766433257, 3.0869635760648584, -2.291005951938305, -3.944093543154349, 2.8862578128331458, -0.7053389108433842, -0.805307754793364, -3.6825489839296206, -7.033649857555117, 1.4837418147426529, 1.8850588230766365, -5.138619762345944, -2.151530528892125, 2.3141922048038235, -2.34012810767858, -2.9367682288794588, 2.644856604292222, -0.6166604508780106, -4.174488160658891, -4.288288898764145, 5.371958433521045], [-0.7988703491304641, -0.9457492591148288, 1.4112092481394372, -1.3536702542877563, -0.2268813430059355, -0.3954499961699967, 0.5197498198825463, -0.25607094573018485, 3.4368150522808834, 0.27240469262532935, -4.33155485880124, 2.6055991726556544, 1.4346262335988529, -6.6693471335292625, 0.14573593921434655, 0.3032177228204318, 4.0501493983823895, 6.877263518221047, -0.41751166535171474, 1.8986193370720186, -5.210561834168638, -2.406444265295002, -4.652819232384862, -0.21299232874959148, 3.332191862837519, -6.032083372148553, 1.5128677160025281], [0.6295987187469618, -4.003155670744806, -2.2165884556218134, -4.288462468029064, -3.9583620237837276, 0.9674885357776641, 4.610714556547723, 1.967690423840414, -2.957702800821087, -0.11463841464544897, 0.7499360903493938, -2.62927515115535, 3.54791821835011, -2.0722061286508464, 5.025325670689285, 2.6364964612535777, -2.076915495463205, -3.1004683503896406, 2.916314006918214, -2.400536681248088, 0.7908498705306476, -2.4000353315933056, -1.9309156902389182, 1.13177886598472, -3.4269249661381127, -4.121694488353994, -1.7105609718242574], [-0.04612332736600942, -1.1947435323564275, -2.8881927398789498, -2.5545857994270658, -1.7376263743685352, 0.9864821706272642, -0.6400860020874771, -1.977658597166062, -1.8887362611780179, -2.4364468385948665, -2.1928325188824616, -1.8512074031798185, -0.5921908969963069, 6.740291177304354, -0.36168632673223733, 2.803719020645683, -4.183827723610736, 1.2654717186420705, -2.1866028732660983, -0.4865907399940435, -4.0924727113406885, 5.190102354959417, -0.4423833751458873, -0.4382961332522772, 0.39146289970162806, 1.1357043609115667, 0.6877950190814832], [-0.3115130287007897, -1.571380402806488, -0.13845788692843314, 0.8096263560029446, -4.676205722357357, -6.8252241980341335, -0.46040600981948304, -1.6686903617489415, -0.2981876199740924, -0.9292343768909148, 3.9007668127853745, 0.1372840330625549, 3.784920373048073, 0.1258082902511741, 1.6128838440632207, -2.269735154005103, 1.9859921974506511, -5.086860095492152, 0.8026022773849926, 1.8987118776905847, -3.6021106944995966, 1.9181804871917318, 3.870559293589309, 5.624906776757524, 3.715533636817925, -1.2653774189666347, -3.0100109883455315], [0.8695835328284537, -2.628706243200193, -3.6448954171704253, 1.4787697385983105, -0.6979508731600982, -1.9617480696832665, 0.09945471830816742, -1.2004252618970552, 1.9169882953910948, -2.1277356191454917, 1.453991651203413, -0.8527108468305734, -0.6931967251916678, -3.020763941094457, 0.5544053307780724, -2.8074889762311446, 2.400330460593568, -0.736711145850316, -0.6885422020566171, -0.43184055544458194, 9.700472731469075, -1.630151472645942, 0.5253941904923891, 1.3320677489834287, -0.8857690862275517, 7.553368884917123, -2.2362695078901194], [-6.027066460612164, 1.2506432470230082, -0.8616370651048721, 0.27059528879298167, -1.422589314039066, 6.735835719125835, 1.96783240150529, 1.76202860935886, -3.405880511663462, -0.6090978359849405, 1.8616862745179208, -1.6897778291469017, 0.3690640012555463, -3.811851032539659, -2.204279386141231, -3.5438067731787717, 0.4843375901072453, -1.8476091490168047, -1.8233770152834117, -2.276358025041103, -1.5263754212770377, 1.8608224269091633, -1.6214310300175712, 5.59130522445681, -1.346228033217687, -2.102088029636077, -2.4262014930534197], [0.6580303062398838, -1.4372867601031802, 4.8121472651683, 5.448789634035988, 3.662179516508522, 0.8096135755426097, 1.9397270179198265, -6.945685233877763, 0.13154428252519, 4.734278024849149, 1.7115459589043813, 2.521123184579088, -2.922081476003832, 0.2902731527500137, 0.06892039567918692, -3.270791378583348, -4.083785220754161, -0.20179202715572048, 2.042396933956968, -5.283723190954409, -3.2411789799911324, -1.7288461785207572, 4.550802388906177, -3.6196320544444776, 2.957956333804591, -3.1503232277954445, -0.6016250576104376]], "input_biases": [[-1.7797394215572373], [0.9840317796587686], [-0.2853067043119644], [0.1752668053611737], [-2.196663352334223], [-0.5049054241518808], [-1.313851111038956], [0.3556768036257051], [0.8072798278598317]]}]}